event_label,emb_0,emb_1,emb_2,emb_3,emb_4,emb_5,emb_6,emb_7,emb_8,emb_9,emb_10,emb_11,emb_12,emb_13,emb_14,emb_15,emb_16,emb_17,emb_18,emb_19,emb_20,emb_21,emb_22,emb_23,emb_24,emb_25,emb_26,emb_27,emb_28,emb_29,emb_30,emb_31,emb_32,emb_33,emb_34,emb_35,emb_36,emb_37,emb_38,emb_39,emb_40,emb_41,emb_42,emb_43,emb_44,emb_45,emb_46,emb_47,emb_48,emb_49,emb_50,emb_51,emb_52,emb_53,emb_54,emb_55,emb_56,emb_57,emb_58,emb_59,emb_60,emb_61,emb_62,emb_63,emb_64,emb_65,emb_66,emb_67,emb_68,emb_69,emb_70,emb_71,emb_72,emb_73,emb_74,emb_75,emb_76,emb_77,emb_78,emb_79,emb_80,emb_81,emb_82,emb_83,emb_84,emb_85,emb_86,emb_87,emb_88,emb_89,emb_90,emb_91,emb_92,emb_93,emb_94,emb_95,emb_96,emb_97,emb_98,emb_99,emb_100,emb_101,emb_102,emb_103,emb_104,emb_105,emb_106,emb_107,emb_108,emb_109,emb_110,emb_111,emb_112,emb_113,emb_114,emb_115,emb_116,emb_117,emb_118,emb_119,emb_120,emb_121,emb_122,emb_123,emb_124,emb_125,emb_126,emb_127,emb_128,emb_129,emb_130,emb_131,emb_132,emb_133,emb_134,emb_135,emb_136,emb_137,emb_138,emb_139,emb_140,emb_141,emb_142,emb_143,emb_144,emb_145,emb_146,emb_147,emb_148,emb_149,emb_150,emb_151,emb_152,emb_153,emb_154,emb_155,emb_156,emb_157,emb_158,emb_159,emb_160,emb_161,emb_162,emb_163,emb_164,emb_165,emb_166,emb_167,emb_168,emb_169,emb_170,emb_171,emb_172,emb_173,emb_174,emb_175,emb_176,emb_177,emb_178,emb_179,emb_180,emb_181,emb_182,emb_183,emb_184,emb_185,emb_186,emb_187,emb_188,emb_189,emb_190,emb_191,emb_192,emb_193,emb_194,emb_195,emb_196,emb_197,emb_198,emb_199,emb_200,emb_201,emb_202,emb_203,emb_204,emb_205,emb_206,emb_207,emb_208,emb_209,emb_210,emb_211,emb_212,emb_213,emb_214,emb_215,emb_216,emb_217,emb_218,emb_219,emb_220,emb_221,emb_222,emb_223,emb_224,emb_225,emb_226,emb_227,emb_228,emb_229,emb_230,emb_231,emb_232,emb_233,emb_234,emb_235,emb_236,emb_237,emb_238,emb_239,emb_240,emb_241,emb_242,emb_243,emb_244,emb_245,emb_246,emb_247,emb_248,emb_249,emb_250,emb_251,emb_252,emb_253,emb_254,emb_255,emb_256,emb_257,emb_258,emb_259,emb_260,emb_261,emb_262,emb_263,emb_264,emb_265,emb_266,emb_267,emb_268,emb_269,emb_270,emb_271,emb_272,emb_273,emb_274,emb_275,emb_276,emb_277,emb_278,emb_279,emb_280,emb_281,emb_282,emb_283,emb_284,emb_285,emb_286,emb_287,emb_288,emb_289,emb_290,emb_291,emb_292,emb_293,emb_294,emb_295,emb_296,emb_297,emb_298,emb_299,emb_300,emb_301,emb_302,emb_303,emb_304,emb_305,emb_306,emb_307,emb_308,emb_309,emb_310,emb_311,emb_312,emb_313,emb_314,emb_315,emb_316,emb_317,emb_318,emb_319,emb_320,emb_321,emb_322,emb_323,emb_324,emb_325,emb_326,emb_327,emb_328,emb_329,emb_330,emb_331,emb_332,emb_333,emb_334,emb_335,emb_336,emb_337,emb_338,emb_339,emb_340,emb_341,emb_342,emb_343,emb_344,emb_345,emb_346,emb_347,emb_348,emb_349,emb_350,emb_351,emb_352,emb_353,emb_354,emb_355,emb_356,emb_357,emb_358,emb_359,emb_360,emb_361,emb_362,emb_363,emb_364,emb_365,emb_366,emb_367,emb_368,emb_369,emb_370,emb_371,emb_372,emb_373,emb_374,emb_375,emb_376,emb_377,emb_378,emb_379,emb_380,emb_381,emb_382,emb_383,emb_384,emb_385,emb_386,emb_387,emb_388,emb_389,emb_390,emb_391,emb_392,emb_393,emb_394,emb_395,emb_396,emb_397,emb_398,emb_399,emb_400,emb_401,emb_402,emb_403,emb_404,emb_405,emb_406,emb_407,emb_408,emb_409,emb_410,emb_411,emb_412,emb_413,emb_414,emb_415,emb_416,emb_417,emb_418,emb_419,emb_420,emb_421,emb_422,emb_423,emb_424,emb_425,emb_426,emb_427,emb_428,emb_429,emb_430,emb_431,emb_432,emb_433,emb_434,emb_435,emb_436,emb_437,emb_438,emb_439,emb_440,emb_441,emb_442,emb_443,emb_444,emb_445,emb_446,emb_447,emb_448,emb_449,emb_450,emb_451,emb_452,emb_453,emb_454,emb_455,emb_456,emb_457,emb_458,emb_459,emb_460,emb_461,emb_462,emb_463,emb_464,emb_465,emb_466,emb_467,emb_468,emb_469,emb_470,emb_471,emb_472,emb_473,emb_474,emb_475,emb_476,emb_477,emb_478,emb_479,emb_480,emb_481,emb_482,emb_483,emb_484,emb_485,emb_486,emb_487,emb_488,emb_489,emb_490,emb_491,emb_492,emb_493,emb_494,emb_495,emb_496,emb_497,emb_498,emb_499,emb_500,emb_501,emb_502,emb_503,emb_504,emb_505,emb_506,emb_507,emb_508,emb_509,emb_510,emb_511
Fall,0.06261317431926727,-0.01527498010545969,-0.04108935594558716,-0.016184424981474876,-0.0100158816203475,-0.024700941517949104,0.005474779289215803,0.004299310967326164,-0.06123000755906105,0.02327161654829979,0.0005405573756434023,0.024861503392457962,0.06172119081020355,0.017008192837238312,-0.026251377537846565,-0.009647129103541374,-0.04485562816262245,-0.038049668073654175,-0.03361986204981804,0.013055199757218361,-0.026652270928025246,0.011539194732904434,0.015174103900790215,0.007465352304279804,-0.003947630524635315,0.0018293950706720352,0.02295083738863468,0.0762711763381958,-0.02437679097056389,0.020174216479063034,0.06450952589511871,0.011096269823610783,-0.048018015921115875,-0.02899797260761261,-0.032660964876413345,-0.06444002687931061,0.016729965806007385,-0.024583296850323677,-0.02565254457294941,-0.03883013129234314,-0.017719507217407227,-0.04206712916493416,-0.019862068817019463,-0.01681162230670452,0.06056744232773781,0.04494662582874298,0.01316036470234394,-0.04245443269610405,-0.0009648606064729393,0.00593422120437026,0.030039677396416664,0.005043181590735912,0.016465792432427406,0.06425926834344864,-0.014988085255026817,-0.004821201786398888,-0.04113154113292694,0.046294644474983215,-0.042245201766490936,-0.022902626544237137,0.052132900804281235,0.01766893081367016,-0.033433180302381516,0.019103463739156723,-0.02552831918001175,0.020993776619434357,-0.008244755677878857,0.07153911888599396,0.005774194840341806,-0.03490366414189339,-0.02830730751156807,-0.027781637385487556,-0.013075588271021843,-2.2166706912685186e-05,0.01770082488656044,0.05096128582954407,0.027357636019587517,0.07185287028551102,-0.032829541712999344,0.01793418824672699,-0.07841042429208755,-0.011922713369131088,-0.022504793480038643,0.05963807925581932,-0.00895764585584402,0.07955102622509003,0.03932051360607147,-0.006368672475218773,-0.08775725215673447,0.031762201339006424,-0.012771214358508587,-0.06156669929623604,-0.11692222207784653,-0.055612776428461075,0.0036969096399843693,0.011515198275446892,0.024780016392469406,-0.025976911187171936,0.029503758996725082,-0.023469433188438416,0.05447100102901459,-0.029334384948015213,0.04579876363277435,0.03464478999376297,0.012056180275976658,-0.007426054682582617,-0.0012382982531562448,-0.03979289531707764,0.019998766481876373,-0.003027518279850483,-0.022563427686691284,-0.023327400907874107,-0.009033736772835255,0.01982818730175495,-0.02549334615468979,-0.009079881943762302,-0.03999294713139534,0.015053641051054,0.044446494430303574,-0.04978184029459953,-0.03428351879119873,-0.08736321330070496,-0.00019156535563524812,0.014016807079315186,0.013327560387551785,-0.01608220301568508,-0.0020686350762844086,-0.01138816773891449,-0.03745020180940628,0.00425386568531394,-0.001156194368377328,-0.015738099813461304,-0.03566538542509079,0.42162203788757324,-0.1345452070236206,-0.00146590790245682,-0.016466280445456505,-0.01617923192679882,0.032020024955272675,-0.03837854415178299,0.03368985652923584,0.016155600547790527,-0.021895574405789375,0.025139998644590378,-0.0016733452212065458,-0.03569813817739487,-0.019966891035437584,-0.06354305893182755,-0.005170296877622604,0.04142820090055466,0.03237570822238922,-0.028307178989052773,-0.015849465504288673,0.04512712359428406,-0.00957513228058815,-0.04305969178676605,0.011941313743591309,0.011521534062922001,0.009314313530921936,-0.03630375489592552,0.0229153074324131,-0.03349476307630539,-0.05122676491737366,-0.07115119695663452,-0.0510612353682518,0.043723493814468384,-0.002769443206489086,0.03274711221456528,0.015135250985622406,0.004779846873134375,0.019013023003935814,0.03469792380928993,-0.04428786411881447,0.011564100161194801,0.003779464168474078,0.038892943412065506,0.03602518141269684,0.028084810823202133,-0.054486777633428574,0.03036535158753395,0.016194427385926247,0.015258660539984703,-0.029671788215637207,0.020462192595005035,-0.03375203162431717,-0.0331198051571846,-0.016685759648680687,-0.010866724886000156,0.007830607704818249,0.019567521288990974,0.05121278390288353,0.009158773347735405,-0.08026736974716187,0.031416475772857666,-0.014585680328309536,-0.0025600362569093704,-0.008410363458096981,0.013562353327870369,-0.02848443016409874,0.026993613690137863,0.02447267808020115,-0.026544110849499702,-0.018075386062264442,-0.00596818421036005,-0.044252607971429825,-0.011145240627229214,0.014690747484564781,-0.03402388095855713,-0.05173197388648987,-0.02567729353904724,0.060986414551734924,0.05003616213798523,-0.0484495647251606,0.06899730861186981,0.027734704315662384,-0.040316808968782425,-0.01826642081141472,0.051590994000434875,0.05905400216579437,0.0022078307811170816,0.002077431883662939,0.04940265417098999,0.006635222118347883,0.020010950043797493,-0.0019038532627746463,-0.0709584578871727,0.010421990416944027,-0.07100895792245865,0.0057294657453894615,-0.027991384267807007,-0.009941814467310905,-0.04138209670782089,-0.03709176555275917,-0.008363036438822746,0.056305985897779465,0.01397818885743618,-0.004813162609934807,-0.016654063016176224,-0.027809912338852882,0.010007462464272976,0.033319439738988876,0.02412477880716324,-0.028559766709804535,-0.0371929407119751,-0.013294082134962082,0.036574020981788635,-0.030442697927355766,-0.03429212048649788,-0.04556838423013687,0.050919197499752045,-0.04527496546506882,-0.0443219393491745,0.015132919885218143,-0.0004219229449518025,0.042403265833854675,-0.02823035791516304,-0.003910823259502649,-0.0322636179625988,-0.04289458692073822,-0.0058161853812634945,0.03942488506436348,0.038974154740571976,0.02987000346183777,-0.010373860597610474,-0.019787484779953957,0.005327564664185047,0.021634982898831367,0.04323849454522133,-0.011662614531815052,-0.012140943668782711,-0.06964214891195297,0.016012350097298622,0.025860441848635674,-0.03187688812613487,0.013026326894760132,0.0015092127723619342,0.05648135766386986,0.02945638820528984,0.027686892077326775,-0.01418707799166441,0.008788290433585644,-0.004768721293658018,-0.0010484831873327494,0.012360693886876106,0.031671617180109024,0.06449051201343536,-0.032447751611471176,-0.0015316983917728066,0.023245390504598618,-0.03745773434638977,-0.011880449019372463,-0.03527119383215904,-0.00426560640335083,-0.024959571659564972,-0.043921250849962234,0.07552144676446915,-0.050644706934690475,0.01462759729474783,-0.01960417442023754,0.030136892572045326,-0.004098879173398018,0.013957764022052288,0.026367440819740295,0.001957825617864728,-0.0238519087433815,-0.053932785987854004,0.05621344968676567,0.012320561334490776,0.046018149703741074,-0.011206749826669693,-0.008058548904955387,0.02394704893231392,0.42235884070396423,0.024439066648483276,-0.0041886791586875916,0.029575219377875328,-0.0013299986021593213,-0.05474039167165756,0.046256303787231445,-0.09421320259571075,-0.0443662591278553,0.004522461909800768,0.013265259563922882,-0.02585110068321228,-0.011938322335481644,-0.009779316373169422,0.006146739702671766,0.02055286429822445,0.047572240233421326,0.013574492186307907,0.014948735944926739,0.06194553151726723,-0.008783320896327496,-0.06291450560092926,-0.017047345638275146,0.016943246126174927,-0.018718509003520012,-0.012809721753001213,-0.025811955332756042,-0.004967826418578625,-0.030137954279780388,0.013803482986986637,0.059343207627534866,-0.009141123853623867,-0.006554778665304184,0.050773512572050095,-0.007445273455232382,0.05200609192252159,-0.013079834170639515,0.073753222823143,0.09727469831705093,0.00995335727930069,0.024075275287032127,0.0304269902408123,0.019625063985586166,-0.05055127665400505,0.008698076009750366,0.026080777868628502,-0.014459050260484219,0.07036140561103821,0.008936647325754166,-0.0959041640162468,0.02188010886311531,0.02062242664396763,0.08485455811023712,0.008934429846704006,0.0477607399225235,-0.02951146848499775,0.012444655410945415,-0.00975764263421297,0.02158460207283497,0.03029540739953518,0.0028587430715560913,0.026694059371948242,0.004880696069449186,0.021704215556383133,0.07654060423374176,-0.02818489819765091,0.017083274200558662,0.06591446697711945,-0.062183886766433716,-0.02080584689974785,-0.015413906425237656,-0.05146631971001625,0.03770483657717705,0.00966294389218092,-0.03030790574848652,-0.014217237941920757,-0.019409995526075363,0.015796124935150146,-0.03046216256916523,0.00991348922252655,-0.06994137912988663,0.00712913041934371,0.016754943877458572,0.020318003371357918,0.09456771612167358,0.0069391243159770966,-0.01934821903705597,-0.0019080080091953278,0.0013774253893643618,-0.011067778803408146,0.09495938569307327,0.05225464701652527,-0.03421793878078461,0.00011310289119137451,-0.01155653316527605,-0.03832488879561424,-0.05638788640499115,0.05459856986999512,0.013324618339538574,0.018900232389569283,0.06906234472990036,0.056430503726005554,0.04041573032736778,0.026212504133582115,-0.004575574304908514,0.034424636512994766,0.011819933541119099,0.025183051824569702,0.04887106642127037,0.04333547502756119,0.028620412573218346,0.021699458360671997,0.0005485049332492054,0.013856855221092701,-0.026076549664139748,0.08382248133420944,0.03736734390258789,-0.02311519719660282,0.02770879864692688,-0.0415431372821331,-0.016235683113336563,-0.018002662807703018,-0.011762254871428013,-0.012258836068212986,-0.008391656912863255,-0.008542724885046482,-0.06241948902606964,-0.01571217179298401,-0.02285994403064251,0.06336317956447601,0.05058107152581215,-0.013861961662769318,0.010724791325628757,-0.03588005155324936,-0.06201585382223129,0.014788311906158924,-0.07016906887292862,0.05599241703748703,0.0356081947684288,-0.017843639478087425,-0.0034901034086942673,0.03179727867245674,0.055550288408994675,0.01907704584300518,0.012820073403418064,-0.014510199427604675,0.008742570877075195,0.050471603870391846,-0.0023396904580295086,0.03785589337348938,0.0025327089242637157,0.017506303265690804,0.01309331227093935,-0.03361218050122261,-0.011690226383507252,0.02371540479362011,0.01950259692966938,-0.020284971222281456,-0.00805629137903452,-0.08102480322122574,0.012400555424392223,-0.04996798560023308,0.007516156416386366,-0.06253363937139511,0.03734451159834862,0.017136259004473686,0.00896698608994484,0.023991717025637627,-0.015192314051091671,0.03646347299218178,0.03627242520451546,-0.010775547474622726,-0.03654715046286583,0.01358519122004509,0.016712969169020653,-0.04213511198759079,-0.020901700481772423,0.0191660076379776,0.007719037123024464,-0.00574423186480999,0.049376230686903,0.050500575453042984,0.023152649402618408,-0.002645445056259632,-0.03426641598343849,-0.013524480164051056,-0.032170262187719345,0.023237470537424088,-0.0475592277944088,-0.0373348630964756,0.017600033432245255,0.010548373684287071,0.06323304772377014,0.04275806248188019,-0.023149855434894562,0.018238041549921036,0.00770407821983099,0.0014592474326491356,-0.01766105554997921,-0.027212440967559814
Arson,0.0008352280710823834,-0.040041301399469376,-0.0041480581276118755,-0.04328801482915878,0.003970813006162643,-0.019681859761476517,-0.027423307299613953,0.006991999223828316,-0.08098889887332916,-0.004497423302382231,-0.005586293991655111,-0.005113897379487753,0.04836659133434296,0.018240727484226227,-0.01195064652711153,0.025861700996756554,-0.012709795497357845,-0.029132362455129623,0.021950222551822662,0.000701400451362133,0.05310217663645744,0.01996423490345478,0.02867436781525612,0.07103565335273743,0.027628853917121887,-0.020258033648133278,0.04160386696457863,-0.020119797438383102,-0.012499681673943996,0.051946863532066345,0.0368538424372673,0.0025140750221908092,0.01242018025368452,0.024882325902581215,-0.08318174630403519,-0.019037535414099693,-0.009244760498404503,0.007818818092346191,-0.02470402792096138,-0.019944602623581886,0.014005757868289948,0.01791617088019848,0.01708528958261013,0.010625995695590973,-0.01846897229552269,0.014530413784086704,-0.024147173389792442,-0.05826858431100845,-0.015726836398243904,-0.010021603666245937,-0.04696068912744522,0.028225520625710487,-0.05733480304479599,-0.012096443213522434,-0.03850289434194565,0.011972586624324322,-0.0449836440384388,-0.011154456995427608,-0.03770999237895012,0.0059358603321015835,-0.023789554834365845,-0.03676648810505867,-0.03762969747185707,-0.0164251159876585,-0.002044611843302846,-0.02865062840282917,-0.029235726222395897,0.06334501504898071,0.045034945011138916,0.01433995645493269,0.016341663897037506,-0.003689135191962123,-0.010376143269240856,0.05550564453005791,0.03960048779845238,0.02653186023235321,-0.0005112526705488563,0.012744000181555748,0.05423099547624588,0.004499496426433325,0.016598109155893326,-0.011391647160053253,-0.033035147935152054,0.0070645431987941265,-0.02842075750231743,0.03160581737756729,0.03060939721763134,-0.022518737241625786,-0.02674056775867939,-0.025733748450875282,-0.0008784264209680259,-0.010095286183059216,-0.08573663234710693,-0.013754107058048248,-0.04522531479597092,-0.00040124860242940485,0.00493958406150341,0.009389634244143963,-0.0007771120872348547,0.007208073046058416,0.00940569955855608,0.015088914893567562,0.006965563166886568,-0.0035112760961055756,0.011398007161915302,-0.024819739162921906,-0.021950941532850266,-0.045626867562532425,0.04713227599859238,0.03368007019162178,0.024606021121144295,-0.01938600093126297,0.04801052436232567,0.0026619608979672194,-0.060732342302799225,-0.00022468253155238926,0.0280427485704422,-0.010222387500107288,0.014738927595317364,0.029078399762511253,-0.018574077636003494,-0.09156396239995956,0.05914383381605148,0.01671527698636055,0.0521053709089756,-0.07346294820308685,-0.015997303649783134,0.04326818138360977,-0.039367228746414185,0.013901383616030216,-0.03490133211016655,-0.01597711443901062,-0.025238478556275368,0.44674763083457947,-0.030914990231394768,-0.046139344573020935,-0.05942912772297859,-0.0180488470941782,0.044081177562475204,-0.007534585427492857,0.022094111889600754,0.00015497974527534097,-0.045317355543375015,0.02142442762851715,0.038153138011693954,0.011997880414128304,-0.02029452472925186,-0.09655369818210602,0.02869359403848648,-0.04765172675251961,-0.03291638568043709,-0.03326457738876343,-0.05620913580060005,0.00720771960914135,-0.006108703091740608,-0.01896125264465809,0.020037658512592316,0.027518417686223984,0.01779646798968315,0.019376493990421295,0.0006037973216734827,-0.0011401037918403745,-0.04159586876630783,-0.025582799687981606,-0.05834748223423958,-0.008922399953007698,0.021479591727256775,0.005831487011164427,0.033651772886514664,-0.037605345249176025,0.04088275507092476,-0.044576551765203476,-0.00905101653188467,0.009012667462229729,0.009495742619037628,0.01022767648100853,0.03417997434735298,-0.006412402726709843,0.0004028768453281373,-0.020084502175450325,0.029134267941117287,-0.01375115942209959,-0.03412304073572159,-0.021319134160876274,-0.045592501759529114,-0.008092690259218216,0.03116459771990776,-0.014715236611664295,-0.0012828944018110633,0.043259114027023315,0.0328192338347435,0.06249472498893738,-0.028918888419866562,0.010928166098892689,0.003990104887634516,0.05615745112299919,0.016772514209151268,0.004467691760510206,0.00452258437871933,-0.02709116041660309,-0.003676146734505892,-0.06652577966451645,-0.0779259130358696,-0.01263598632067442,-0.03994743525981903,-0.026272861286997795,0.017095567658543587,0.015749093145132065,0.0075614117085933685,-0.035880692303180695,0.008759990334510803,0.03963668271899223,0.030551178380846977,-0.002431435976177454,-0.01456789206713438,0.011926047503948212,0.03962195664644241,-0.024461736902594566,0.025644946843385696,-0.009597238153219223,0.02535734698176384,0.056133758276700974,0.05702836066484451,-0.037680257111787796,0.0005870928871445358,-0.037761203944683075,-0.010290411300957203,-0.006144053302705288,-0.015524480491876602,0.020114358514547348,0.008847057819366455,-0.03439182788133621,-0.01797272451221943,0.05912734195590019,0.03511270135641098,0.125942200422287,-0.018509304150938988,0.0014785253442823887,0.027562564238905907,-0.007925685495138168,0.05759676918387413,-0.03005901910364628,-0.008486723527312279,-0.004225417040288448,-0.01485865842550993,0.018324492499232292,-0.026929380372166634,0.036056630313396454,0.03632288798689842,-0.009587696753442287,0.02757607214152813,-0.017609281465411186,0.01911294087767601,0.04991970583796501,0.014349573291838169,0.0016642706468701363,-0.013839572668075562,-0.027304189279675484,-0.02397054061293602,-0.037021540105342865,-0.03853867948055267,0.010880731046199799,0.043220698833465576,-0.0021718768402934074,0.025713328272104263,-0.020836830139160156,0.019405147060751915,0.017838317900896072,0.011387137696146965,-0.016956303268671036,-0.011447771452367306,0.02921292558312416,0.02825404331088066,-0.011031891219317913,-0.010392416268587112,-0.03997771814465523,0.01323645655065775,-0.013320693746209145,0.007651332300156355,0.01277017593383789,0.010672912932932377,-0.0149283641949296,-0.01982077769935131,0.02199111320078373,0.044358961284160614,0.04005368426442146,-0.020483599975705147,0.07586273550987244,-0.03170959651470184,-0.054493412375450134,-0.018224474042654037,-0.03287054970860481,-0.015641367062926292,0.03859468549489975,0.0012599978363141418,0.01909857802093029,-0.05258481949567795,0.027386847883462906,-0.01320202462375164,0.018315555527806282,-0.01220860704779625,0.029995953664183617,0.024517197161912918,0.034071989357471466,0.040909767150878906,-0.06586704403162003,0.004075000528246164,-0.052784308791160583,0.07347921282052994,-0.0369003564119339,0.001617514411918819,0.04346345737576485,0.4465271532535553,-0.01817779801785946,-0.0037813603412359953,0.02699929103255272,-0.001335032982751727,-0.07897015661001205,0.02779461070895195,-0.04360758885741234,0.01916443556547165,0.009108318947255611,0.014789226464927197,-0.038819536566734314,-0.08842330425977707,-0.005644576158374548,-0.01875842921435833,-0.049092888832092285,0.08959608525037766,-0.002439305419102311,-0.06419637799263,0.034386225044727325,0.012344119139015675,-0.026678241789340973,-0.022680308669805527,-0.006935140583664179,-0.07047754526138306,0.010932842269539833,-0.0005540354177355766,0.03573744744062424,-0.013715267181396484,0.005354235880076885,0.03512091189622879,0.00715753436088562,0.041917286813259125,0.014798116870224476,-0.04594051092863083,0.013305345550179482,-0.0031079361215233803,-0.007819228805601597,0.06930772960186005,-0.018233733251690865,0.029465781524777412,-0.04607775807380676,0.014541508629918098,-0.09876970201730728,0.03254032880067825,-0.011540861800312996,-0.05716852471232414,0.007216756697744131,-0.03736016899347305,-0.022305550053715706,0.013985794968903065,0.0620938204228878,0.02450832910835743,0.024611324071884155,0.03576847165822983,0.009318454191088676,0.0046100555919110775,-0.022871283814311028,-0.01706169918179512,-0.036847006529569626,-0.011270470917224884,0.00733580719679594,-0.026125121861696243,-0.012858211994171143,0.005144857801496983,-0.04233267903327942,0.023041153326630592,0.013840323314070702,-0.004290604032576084,-0.06197258085012436,0.005638788919895887,-0.011733374558389187,0.031891562044620514,-0.00865241326391697,-0.01847296580672264,0.0023017015773802996,0.0476975217461586,-0.009771134704351425,-0.05535212159156799,0.04150709509849548,-0.027639474719762802,0.04582197591662407,0.04066717252135277,-0.03465334698557854,-0.014130697585642338,-0.08907488733530045,-0.007048468105494976,0.0218748077750206,-0.009775998070836067,0.012605596333742142,0.05956588685512543,0.06969849020242691,0.01271774247288704,0.004372967407107353,-0.0021237500477582216,0.011221379041671753,0.030265145003795624,0.011898133903741837,-0.021272651851177216,-0.02872927300632,-0.027792731299996376,0.07795035094022751,0.06868227571249008,0.019052930176258087,-0.014743172563612461,0.12980864942073822,-0.027549991384148598,0.05114755034446716,0.04013975337147713,0.0014605616452172399,0.03685133904218674,0.01977209374308586,-0.041951268911361694,0.009357105009257793,0.022703250870108604,0.06730727851390839,0.033166442066431046,0.007423443719744682,0.010785680264234543,0.0075346967205405235,-0.04506746307015419,0.0040122331120073795,-0.019049575552344322,-0.02579878829419613,-0.04823753610253334,0.025433668866753578,-0.001415401347912848,-0.034353677183389664,0.030453838407993317,-0.04293827712535858,0.0615297369658947,-0.005313081666827202,0.00440866407006979,-0.009371450170874596,-0.03151344135403633,-0.03333482891321182,-0.05866635590791702,-0.04379354044795036,0.01643516682088375,0.03295530751347542,0.022740531712770462,-0.007377732545137405,-0.0032520845998078585,0.04946522042155266,0.017486440017819405,-0.03251960128545761,0.03685152530670166,-0.04575829952955246,-0.0043185497634112835,-0.013517074286937714,0.06510870158672333,0.011002068407833576,0.07692292332649231,-0.02477824129164219,-0.01057458110153675,-0.028341181576251984,0.02253958024084568,0.014956614933907986,0.009097718633711338,-0.013523077592253685,0.010104896500706673,-0.07794017344713211,-0.07378319650888443,-0.006730865687131882,0.028456224128603935,0.05322326347231865,-0.007086546625941992,-0.036797817796468735,-0.02769678831100464,0.02459617890417576,0.038747940212488174,0.0028019158635288477,0.0541553795337677,-0.014427381567656994,0.04945790022611618,-0.024706337600946426,-0.01640475168824196,-0.05775703489780426,-0.029428277164697647,0.010567245073616505,-0.017252260819077492,0.12652093172073364,0.002385759958997369,0.0022488515824079514,0.02524585835635662,-0.02250802516937256,0.0028932648710906506,0.006370686925947666,0.01852237433195114,-0.05114046111702919,-0.014661540277302265,-0.024452824145555496,0.039493512362241745,-0.02204948477447033,-0.03228165954351425,0.008151101879775524,0.03551414981484413,0.06605618447065353,-0.014936203137040138,-0.005380925722420216
Abandonment,0.012474384158849716,0.03027471713721752,0.006879583466798067,0.025697898119688034,-0.028780467808246613,0.03311054781079292,-0.051592666655778885,-0.03518999367952347,-0.07827883958816528,-0.003860216587781906,0.012760213576257229,0.013669676147401333,0.056160349398851395,0.03488760441541672,0.03022567182779312,0.036712344735860825,0.01742096245288849,-0.004077622666954994,0.005927317310124636,-0.013390426523983479,-0.051238201558589935,0.0164203979074955,0.04382459446787834,-0.01825336366891861,0.003067166078835726,0.006612613797187805,0.010954680852591991,-0.021752972155809402,0.0010714208474382758,-0.05445356294512749,0.020468665286898613,0.01992759294807911,-0.014146126806735992,-0.018798211589455605,-0.04758871719241142,-0.021588165313005447,0.0003063398180529475,-0.002005313290283084,-0.0020861190278083086,0.006916665472090244,0.024232730269432068,0.043275728821754456,0.0075356862507760525,-0.01845252886414528,0.023322509601712227,-0.014536699280142784,-0.032764874398708344,-0.009716839529573917,-0.044105470180511475,0.015180665999650955,0.012518488802015781,-0.05329877883195877,-0.006395942065864801,-0.011469761840999126,-0.03126725181937218,0.027943167835474014,-0.049449194222688675,0.06326613575220108,0.03566860035061836,0.0035628427285701036,0.013861080631613731,0.020310163497924805,0.006360743660479784,-0.0008729511173442006,-0.00532133411616087,-0.010397003963589668,0.003658715169876814,0.013875565491616726,0.0011961684795096517,-0.013440201990306377,-0.023830078542232513,-0.013053386472165585,0.040928058326244354,-0.06522086262702942,0.029177453368902206,-0.011248997412621975,-0.014418204315006733,0.0473090223968029,0.024740681052207947,-0.013115308247506618,-0.02388501539826393,0.025885136798024178,-0.010775488801300526,-0.033982135355472565,0.00603475933894515,-0.009311161935329437,-0.008931860327720642,-0.031887806951999664,0.006212134845554829,-0.013212914578616619,-0.029728153720498085,-0.016495736315846443,-0.10062799602746964,0.03215114772319794,0.016028469428420067,0.02995140105485916,-0.009088607504963875,0.04492529481649399,0.04237164929509163,0.028795314952731133,0.03767501562833786,-0.004933111369609833,0.01942473091185093,0.020948562771081924,-0.018561100587248802,-0.003031677333638072,-0.03225717693567276,0.03452179208397865,0.021245399489998817,0.029349489137530327,-0.0015405728481709957,0.019469594582915306,0.04392602667212486,0.0010309877106919885,0.00819125585258007,0.012360482476651669,-0.012098096311092377,-0.03546586632728577,0.011120458133518696,0.026086831465363503,0.024129314348101616,-0.06363442540168762,-0.005029527470469475,-0.0044077299535274506,0.02181389555335045,-0.044907718896865845,-0.007597451563924551,0.0017130845226347446,0.014004332013428211,0.022375917062163353,-0.00020045657583978027,-0.035064004361629486,-0.01580231450498104,0.5454484224319458,-0.025715455412864685,0.006842884700745344,-0.009334035217761993,-0.005061574745923281,-0.011745982803404331,-0.0175964143127203,0.017755743116140366,0.0069625601172447205,-0.060798902064561844,-2.4544708139728755e-05,-0.0011888915905728936,-0.053917497396469116,-0.0003174116718582809,-0.07569056004285812,0.023974409326910973,0.02953101508319378,-0.005785163026303053,-0.015023523010313511,-0.035139407962560654,0.02618052437901497,0.01750890165567398,-0.03259732201695442,-0.0319916196167469,0.007415689993649721,-0.019804950803518295,0.013436648063361645,-0.01997377723455429,-0.02244972437620163,0.01430334709584713,0.02125190570950508,0.007515321020036936,-0.034003570675849915,0.06091075390577316,-0.02846563048660755,-0.027281884104013443,0.04444405809044838,0.0087268752977252,0.009382341988384724,-0.0037673215847462416,0.043817393481731415,-0.019598010927438736,0.015770742669701576,0.07778935134410858,0.04914560541510582,0.004770667292177677,-0.019785426557064056,0.0005579142598435283,-0.04145209118723869,-0.02403039112687111,0.027246598154306412,-0.0030235375743359327,0.007386815268546343,-0.004952264484018087,-0.05079956725239754,-0.007962243631482124,0.010758506134152412,0.015592267736792564,-0.02433752827346325,-0.027817927300930023,0.012562278658151627,-0.015297346748411655,-0.0016954017337411642,0.016769999638199806,-0.005478268023580313,-0.044055771082639694,-0.01176547259092331,0.03526930510997772,-0.023774398490786552,-0.04320099204778671,0.017593005672097206,-0.043671298772096634,-0.04501465708017349,-0.01572541519999504,0.0111108822748065,0.036511629819869995,-0.010506576858460903,0.00822838582098484,0.008799583651125431,-0.02314227819442749,-0.0031301770359277725,0.008221530355513096,-0.04135594889521599,-0.018030308187007904,0.0014818415511399508,0.039146970957517624,-0.014022499322891235,-0.03122722916305065,-0.0577332079410553,0.00489578302949667,0.029039548709988594,0.025311563163995743,-0.034724097698926926,0.0057969288900494576,-0.014075024984776974,-0.004665464162826538,-0.019676290452480316,0.06809268146753311,-0.05342429503798485,0.017540574073791504,0.034352004528045654,0.03153536468744278,0.007750961929559708,-0.009145035408437252,-0.005099207628518343,-0.01768261194229126,0.028997259214520454,0.03355133533477783,-0.026407616212964058,-0.027305837720632553,0.018759775906801224,-0.016096921637654305,0.02562340348958969,0.046756476163864136,-0.0084331464022398,0.012772844173014164,0.009028343483805656,-0.019451851025223732,-0.008065175265073776,0.06316003203392029,-0.010179082863032818,-0.014251469634473324,0.02998626045882702,0.020866094157099724,0.015761539340019226,-0.05255287140607834,0.02956203557550907,0.012190692126750946,9.373970533488318e-05,-0.025746004655957222,0.009428935125470161,-0.015507584437727928,-0.0456499420106411,0.0030546600464731455,0.05165937915444374,0.004839558154344559,0.002652938710525632,-0.024720195680856705,-0.028316596522927284,-0.0031827182974666357,-0.028323259204626083,-0.023860245943069458,0.00699618412181735,-0.012343006208539009,0.018128881230950356,0.006270256824791431,-0.01929769106209278,0.03128562495112419,0.006857565138489008,-0.029732536524534225,0.027354909107089043,-0.0036725925747305155,-0.008304454386234283,-0.008850153535604477,-0.03327972814440727,0.014952675439417362,-0.030490843579173088,0.0032400793861597776,0.010973922908306122,-0.010384352877736092,-0.016091693192720413,-0.012603986077010632,-0.010442353785037994,-0.023765575140714645,-0.012038077227771282,0.03153493255376816,0.03109172359108925,-0.0007298447890207171,-0.03571023792028427,0.00694580702111125,-0.019392961636185646,-0.029270848259329796,-0.01927630975842476,0.04933430254459381,-0.0067485636100173,-0.029816344380378723,-0.031092597171664238,-0.045796122401952744,0.0018031293293461204,0.5461953282356262,0.010693144984543324,-0.016038816422224045,0.007580756209790707,0.029413938522338867,-0.056843604892492294,0.007093080319464207,-0.030800430104136467,0.009125768207013607,0.06174243241548538,-0.006292715203016996,-0.04006533324718475,-0.030803699046373367,-0.03814050182700157,-0.06218160316348076,-0.032018400728702545,0.005108901299536228,-0.07761619240045547,0.01751881279051304,0.021007852628827095,-0.031929802149534225,-0.00899658352136612,-0.0065366486087441444,-0.006920563522726297,-0.015955021604895592,-0.02175070345401764,-0.0008447479922324419,-0.00957355834543705,-0.02835848554968834,0.013822038657963276,0.047235868871212006,-0.017318326979875565,0.016446731984615326,-0.012592748738825321,-0.02196226641535759,0.0026065497659146786,-0.0318371057510376,-0.021171826869249344,-0.00013996128109283745,-0.03260955587029457,0.00220443750731647,0.026451412588357925,-0.00868953112512827,-0.080190509557724,-0.009905213490128517,0.07379694283008575,0.026597565039992332,-0.011290508322417736,-0.014884980395436287,-0.009568973444402218,0.009220259264111519,-0.01946427673101425,0.039404768496751785,-0.039361629635095596,0.004668395034968853,0.07331721484661102,0.002603163244202733,0.0047823116183280945,-0.046735282987356186,0.0032953142654150724,0.002464884426444769,0.01151436846703291,0.006559332367032766,-0.00011295997683191672,0.03677065670490265,0.0021909582428634167,-0.02576504833996296,0.023386094719171524,0.05007326602935791,-0.016574813053011894,0.010056177154183388,-0.022417789325118065,0.0026832674629986286,-0.012485248036682606,-0.004200569819658995,-0.0006008425261825323,-0.030934268608689308,-0.031944941729307175,-0.001478157821111381,0.006872080732136965,-0.05185447260737419,0.002972883405163884,0.012977352365851402,-0.03477153927087784,0.0224350243806839,0.012306081131100655,0.006617653649300337,-0.027420585975050926,-0.010231832042336464,0.032892074435949326,0.04998624324798584,0.02115665376186371,-0.06791208684444427,0.0011393948225304484,-0.0021534909028559923,0.007818584330379963,0.004113619215786457,0.006561469752341509,0.004393749870359898,-0.034308984875679016,0.04384493827819824,-0.0013490624260157347,-0.0074896919541060925,-0.01131164189428091,-0.03973040357232094,-0.03159944713115692,0.041597556322813034,0.023158619180321693,0.021678593009710312,-0.016852829605340958,-0.020709577947854996,0.01796543598175049,-0.044890113174915314,0.008862223476171494,0.008419071324169636,0.00438741035759449,-0.03709224984049797,-0.01469630841165781,0.01790788397192955,0.007259679492563009,0.03583500161767006,-0.019181864336133003,0.008277312852442265,0.0003671959275379777,-0.029160968959331512,0.008544201962649822,0.0047790491953492165,0.018797988072037697,0.0070714340545237064,-0.02398078329861164,0.02997945435345173,-0.023258471861481667,-0.007759695872664452,0.01680787093937397,0.017310047522187233,-0.0266847163438797,-0.01175483874976635,0.04948488995432854,-0.029241351410746574,0.03111361525952816,-0.014481800608336926,0.035881124436855316,0.0022877890150994062,0.01581379771232605,0.03737041726708412,0.050628662109375,0.001739704399369657,-0.03906162828207016,-0.021488960832357407,-0.020306074991822243,0.02452242188155651,0.06180760636925697,0.04725579917430878,0.005960487760603428,-0.03751198947429657,-0.01524687185883522,0.003829482477158308,0.00869448110461235,-0.029174668714404106,0.005026454105973244,-0.020297668874263763,-0.014869332313537598,0.05228511989116669,0.0159574206918478,0.025604484602808952,-0.02247367426753044,-0.0002868996234610677,0.026675324887037277,0.03190566971898079,0.009948426857590675,0.0063307262025773525,0.010267873294651508,-0.04959934577345848,-0.04360201954841614,0.03553244471549988,0.022392649203538895,0.028058599680662155,0.029440168291330338,-0.005991578102111816,-0.007722195237874985,0.020031027495861053,0.08918561041355133,0.007166075054556131,-0.011216807179152966,0.024212295189499855,-0.01326607633382082,-0.024317340925335884,0.011465528979897499,-0.0264825988560915,-0.022638946771621704,0.024073053151369095,0.01694013923406601,0.10830804705619812,0.01110875979065895,-0.0017158078262582421,0.041160937398672104,0.040036339312791824,0.002495287684723735,0.018984660506248474,0.001868581515736878
Damage,0.0014535633381456137,-0.034869804978370667,0.01670692302286625,0.0028487402014434338,-0.025140125304460526,0.042919598519802094,-0.0019983481615781784,-0.02380448207259178,-0.02747424691915512,0.016198182478547096,0.00814981572329998,-0.01698022335767746,0.05347276106476784,0.023651905357837677,-0.015909375622868538,0.027272425591945648,0.03387187793850899,-0.00293516437523067,-0.01876739226281643,-0.015408368781208992,-0.0032667522318661213,-0.007801585365086794,0.01992621272802353,-0.05174509063363075,-0.03387865051627159,-0.004534630570560694,0.00952881295233965,0.013216621242463589,-0.011591162532567978,-0.0066249486990273,-0.016626428812742233,-0.003653543768450618,-0.02295084111392498,0.0225481316447258,-0.06441804766654968,0.007844432257115841,-0.009142044000327587,0.002784846816211939,-0.03558087721467018,-0.025202328339219093,-0.002738080220296979,0.00662579108029604,0.0005935731460340321,0.019671469926834106,0.011502674780786037,-0.03405861556529999,-0.010475145652890205,-0.0035550985485315323,-0.07185766845941544,-0.0016460259212180972,0.008310300298035145,-0.05887121334671974,-0.014328433200716972,-0.019150352105498314,-0.014833253808319569,0.013541573658585548,-0.06412040442228317,0.009926293976604939,0.08172792196273804,-0.0204786229878664,-0.024688445031642914,0.02863983064889908,0.03818705677986145,-0.00769157987087965,-0.013297950848937035,-0.0019233972998335958,-0.004320043139159679,0.02551356889307499,-0.014941520988941193,0.006739180535078049,-0.015168556943535805,0.018048135563731194,-0.003953096456825733,-0.0383022278547287,0.018149716779589653,-0.029699034988880157,0.017389070242643356,0.005505936220288277,0.018655117601156235,0.01078137755393982,0.027080781757831573,0.041349735110998154,-0.026463916525244713,-0.03257165849208832,-0.01877550780773163,-0.04135783761739731,-0.0012359024258330464,-0.030795274302363396,0.0031594817992299795,-0.024777915328741074,-0.047186508774757385,0.03360261023044586,-0.0941300094127655,-0.0007621487602591515,0.0025280462577939034,0.009262251667678356,-0.0167120061814785,0.023499544709920883,0.0305005069822073,-0.002603320637717843,-0.0032756987493485212,0.03904289752244949,0.01838781125843525,0.0027586352080106735,-0.008344101719558239,-0.01037865225225687,-0.07532614469528198,0.030920419842004776,-0.029629459604620934,-0.03141103684902191,-0.012723516672849655,-0.04317384958267212,0.01764875091612339,0.0073218331672251225,0.007870028726756573,-0.04432733356952667,-0.008580261841416359,-0.001026146812364459,0.03442981839179993,0.04390646144747734,0.01988374814391136,-0.02072642371058464,-0.024668237194418907,0.0064463429152965546,0.007731730118393898,0.0046550254337489605,-0.004752203822135925,-0.007382042706012726,0.012150469236075878,-0.0019500975031405687,-0.010617505759000778,0.009716317988932133,-0.01942477375268936,0.5405775904655457,-0.011706167832016945,-0.03160298243165016,-0.04914439097046852,-0.00018578398157842457,-0.011768734082579613,-0.00691589992493391,0.03737742453813553,0.023355156183242798,0.012205516919493675,-0.0076714190654456615,-0.02503805421292782,-0.04603882133960724,-0.0017395152244716883,-0.07858413457870483,0.025506535544991493,0.036325570195913315,0.03950992226600647,-0.01152345072478056,-0.028045011684298515,0.06134113296866417,0.017831770703196526,-0.014933132566511631,0.025246625766158104,0.00042428888264112175,0.0007875542505644262,0.028962206095457077,-0.02165067382156849,-0.028332959860563278,-0.03773726150393486,0.0359046645462513,0.02009795606136322,-0.02608019858598709,-0.014431750401854515,0.010519632138311863,0.011961845681071281,0.03511954843997955,-0.030183251947164536,0.05281210318207741,-0.02490105852484703,0.020678037777543068,-0.04131833091378212,0.016098810359835625,0.05057966709136963,0.0011230891104787588,0.057861749082803726,-0.0009910061489790678,-0.020658928900957108,-0.04530433937907219,-0.00012075425183866173,0.014068899676203728,-0.050696175545454025,-0.021363526582717896,0.005830588284879923,-0.04566658288240433,-0.033402424305677414,0.04494466632604599,0.003402387024834752,-0.012052186764776707,-0.03606302663683891,0.041307516396045685,-0.008178182877600193,-0.051032617688179016,0.03322982043027878,0.04800716042518616,-0.0283378753811121,-0.042039789259433746,-0.0061587123200297356,-0.023042960092425346,-0.038891859352588654,0.00029891717713326216,-0.005994854494929314,-0.05736623331904411,-0.03547104820609093,0.03313136473298073,0.04512977972626686,-0.002410703571513295,0.016345178708434105,-0.004506582394242287,0.00845736637711525,-0.027275336906313896,0.008718467317521572,-0.008949960581958294,-0.005672819446772337,0.0051633454859256744,-0.004659612663090229,-0.018967948853969574,-0.012817217037081718,-0.06071721017360687,-0.0483316034078598,-0.0032410493586212397,-0.007245003245770931,-0.010414093732833862,0.04290631785988808,-0.007436248008161783,0.029049376025795937,-0.04874129220843315,0.024055296555161476,-0.008986352942883968,-0.00506466394290328,0.0010944237001240253,0.06605464220046997,0.03659005090594292,0.003835511626675725,-0.010034791193902493,-0.006354410666972399,-0.0007090542349033058,0.010497622191905975,-0.05709157884120941,-0.00027767886058427393,0.0020647121127694845,-0.00814067106693983,0.08761514723300934,-0.0049633001908659935,0.02061590738594532,-0.008919179439544678,-0.043053142726421356,0.027188895270228386,0.029737012460827827,0.04797673225402832,-0.03552836924791336,0.020871298387646675,-0.0008104402804747224,-0.010482785291969776,0.002520824084058404,0.028500502929091454,0.08607789874076843,0.044553276151418686,0.004326856695115566,-0.015566958114504814,0.022123711183667183,0.029247285798192024,-0.01064358651638031,-0.013011614792048931,0.02804744988679886,0.019393304362893105,0.03230726346373558,-0.017865419387817383,-0.0446651391685009,-0.03514307364821434,0.0028768889605998993,-0.0001533589093014598,0.00206751748919487,-0.02187284268438816,0.028352884575724602,0.0495227612555027,0.020017875358462334,0.029136212542653084,-0.010415149852633476,-0.032066524028778076,-0.00602429173886776,0.002423366066068411,-0.02089778520166874,0.025261707603931427,-0.045739609748125076,0.024449339136481285,0.015819285064935684,-0.016028137877583504,0.011608363129198551,-0.0011533411452546716,-0.030345043167471886,-0.009278547018766403,0.005628697574138641,-0.016094442456960678,-0.023260273039340973,0.03289236128330231,-0.002553611760959029,-0.028895961120724678,0.0030547757633030415,-0.03683089464902878,0.01402965933084488,-0.0027919586282223463,-0.03918573260307312,0.03033391386270523,0.03510838747024536,0.0026684917975217104,-0.004687702748924494,-0.013505799695849419,0.03204791620373726,0.5414077043533325,-0.00885503925383091,0.013774413615465164,-0.010255532339215279,0.026749642565846443,-0.04029753804206848,0.010375087149441242,-0.03619818389415741,0.018706677481532097,0.04087579622864723,-0.020096074789762497,-0.027025742456316948,-0.04481605812907219,-0.0016599278897047043,-0.0264545027166605,-0.048082128167152405,0.02179168164730072,-0.018260035663843155,0.029652319848537445,0.002941286889836192,-0.06451325118541718,0.004483537748456001,-0.012886281125247478,-0.025703193619847298,-0.01924159936606884,-0.004805379547178745,0.019202716648578644,-0.03827723115682602,0.009068676270544529,0.08110223710536957,0.025017865002155304,0.009654540568590164,0.00970690418034792,0.007585261017084122,-0.005679871886968613,0.010621260851621628,-0.00813397578895092,-0.0431765615940094,0.009933038614690304,-0.012083826586604118,0.016637137159705162,0.013020322658121586,-0.002385900355875492,-0.07563449442386627,-0.06738589704036713,0.09099801629781723,0.042424678802490234,0.03021746315062046,-0.036885615438222885,0.03145918995141983,-0.008840812370181084,-0.03544341027736664,0.06049146503210068,-0.003545866347849369,0.0034155654720962048,0.0332978218793869,0.04971380904316902,0.028093069791793823,0.014467569999396801,0.026958616450428963,0.03524143621325493,-0.022899627685546875,-0.014548121951520443,0.006579031702131033,0.01752580516040325,0.0088950889185071,0.044720616191625595,-0.004548541735857725,0.02680875174701214,-0.004754251334816217,-0.009893218986690044,-0.02259237878024578,-0.03832227736711502,0.0011964201694354415,-0.023000162094831467,0.02382287010550499,-0.04809916391968727,-0.030345764011144638,-0.019908171147108078,0.07150829583406448,-0.02150767482817173,0.036482665687799454,0.03191746771335602,0.008214486762881279,0.0293869785964489,0.006728654727339745,-0.006137932650744915,0.037436164915561676,-0.03422029688954353,0.013048849068582058,0.02123504877090454,-0.013475432060658932,-0.023160623386502266,-0.02798103541135788,-0.027726557105779648,0.00259598926641047,-0.02528379112482071,0.01871778815984726,0.007250667549669743,-0.03401315212249756,-0.004058296792209148,0.0066284723579883575,-0.01362883485853672,0.05091572552919388,-0.005642516538500786,-0.023981228470802307,-0.005296406336128712,-0.006044874899089336,0.004667253233492374,-0.03262823820114136,-0.02687668241560459,-0.010767893865704536,-0.01565028354525566,0.008138745091855526,0.0037997043691575527,0.005800431594252586,-0.0480235256254673,-0.01825399324297905,0.009708902798593044,0.041792601346969604,0.04303937777876854,-0.06027226522564888,0.01183759979903698,0.008121348917484283,-0.0004081155057065189,-0.00510293198749423,0.02848372980952263,0.03746364638209343,0.032047711312770844,0.008150058798491955,0.027101948857307434,-0.028852108865976334,-0.012735605239868164,0.018768439069390297,-0.017121950164437294,-0.005848728120326996,-0.020923612639307976,-0.0011676428839564323,-0.006344062741845846,0.01413959264755249,0.04664817079901695,-0.0027424092404544353,-0.008246582932770252,0.00038248233613558114,-0.002307394752278924,0.000780298316385597,-0.024083608761429787,-0.012566342949867249,-0.015960270538926125,0.005970966536551714,0.01457397174090147,0.019722968339920044,0.05000603199005127,-0.008156996220350266,-0.0016196216456592083,-0.028933003544807434,0.0023489000741392374,-0.010033266618847847,0.012077795341610909,-0.0234711654484272,0.01480349712073803,-0.0048859198577702045,-0.0008683174382895231,0.023968884721398354,0.052871353924274445,0.025698482990264893,-0.004342957399785519,0.043019767850637436,0.04289606958627701,-0.02425791695713997,0.021809840574860573,0.0008982433937489986,-0.05960244685411453,0.015483361668884754,0.0018274784088134766,-0.019838090986013412,-0.007429927587509155,0.016821768134832382,0.005571738816797733,0.0018333890475332737,0.010103747248649597,0.0871032327413559,-0.036958783864974976,-0.03738716244697571,0.03273174911737442,-0.027978334575891495,-0.008046741597354412,-0.0006597462925128639,-0.0031976031605154276,-0.05277504026889801,-0.0012891842052340508,0.015495608560740948,0.044773589819669724,0.00898628868162632,-0.0068979463540017605,0.02480369620025158,0.026152417063713074,0.04878588765859604,0.0509810633957386,0.01580636017024517
Theft,-0.0022402273025363684,-0.0005688925739377737,0.017770525068044662,-0.006802306044846773,-0.007574487943202257,0.019538016989827156,0.0034312314819544554,-0.04805818572640419,-0.03941090777516365,0.052415259182453156,0.01012338139116764,-0.022776396945118904,0.04143523424863815,-0.021346697583794594,-0.048453088849782944,0.03358658030629158,0.01715434156358242,0.04560850188136101,-0.00683111697435379,-0.011808215640485287,-0.02663465216755867,0.005572478286921978,0.016849687322974205,-0.031572699546813965,0.015286603942513466,0.012120676226913929,-0.025950822979211807,0.004626506473869085,0.021421749144792557,-0.018526753410696983,0.010098508559167385,0.015649577602744102,-0.007959687151014805,-0.03681468591094017,-0.08231768757104874,-0.000720692565664649,-0.015441978350281715,-0.011036787182092667,-0.03240584954619408,-0.007861495018005371,-0.007187563460320234,0.0033856735099107027,0.012470164336264133,0.023504169657826424,0.040121328085660934,-0.006339280866086483,-0.019458765164017677,-0.004489779006689787,0.0007414150168187916,-0.0033148915972560644,0.016428284347057343,-0.06195493042469025,0.0018029395723715425,-0.017558444291353226,-0.0063815345056355,0.02391706220805645,-0.013963906094431877,0.04765355587005615,0.015179422684013844,0.010467005893588066,0.03246250003576279,-0.03558993712067604,0.04269397258758545,-0.029870208352804184,-0.006946271751075983,-0.020989354699850082,-0.007456345017999411,0.04131896421313286,-0.0056375861167907715,-0.004841902758926153,-0.0338810496032238,-0.008894667960703373,0.0332760252058506,-0.03875819221138954,0.012317231856286526,-0.01357347797602415,0.014546027407050133,0.020280173048377037,-0.0345720611512661,0.014057893306016922,-0.023403657600283623,0.025593210011720657,-0.017306365072727203,-0.04470851644873619,-0.030713237822055817,-0.0230475515127182,-0.052447445690631866,-0.03204338625073433,0.016226839274168015,0.023014934733510017,-0.010325493291020393,-0.015255681239068508,-0.11397579312324524,0.024206990376114845,0.006918992847204208,0.04668605700135231,-0.0002780507202260196,0.02882394939661026,0.037869907915592194,0.01374702900648117,0.04221661016345024,-0.00015670312859583646,0.0033498802222311497,0.007532792631536722,0.001391368918120861,-0.0681167021393776,-0.03399050980806351,0.030854713171720505,0.01922016218304634,0.006003085989505053,-0.017365004867315292,-0.04726693779230118,0.030316442251205444,0.016333425417542458,0.01741059496998787,-0.00048600512673147023,0.01463071908801794,-0.0025543493684381247,-0.018356911838054657,0.003687832737341523,0.012986937537789345,0.007361080963164568,0.023493684828281403,0.01702210307121277,-0.021736890077590942,0.0075664399191737175,-0.016304301097989082,-0.012756169773638248,-0.006502991076558828,0.011632892303168774,-0.00571706797927618,-0.03411589562892914,-0.00840059109032154,0.5631487369537354,0.0013208981836214662,0.0020882468670606613,-0.053315892815589905,-0.017290247604250908,0.022862723097205162,0.00016909546684473753,0.016247885301709175,0.008796937763690948,0.007712135557085276,0.011866807006299496,-0.018139436841011047,-0.015089904889464378,0.004042635206133127,-0.05834745615720749,-0.004104966297745705,-0.0022812483366578817,0.02534102089703083,-0.0054276506416499615,-0.010926077142357826,-0.005226080305874348,0.035200465470552444,-0.008394831791520119,-0.03130831569433212,-0.00601403322070837,-0.021446654573082924,0.011085131205618382,-0.012141861021518707,-0.0098483357578516,-0.009485895745456219,0.006861885078251362,-0.02878677099943161,-0.030185524374246597,0.059200484305620193,0.01831306889653206,-0.01625022664666176,0.015906793996691704,-0.02521803043782711,0.04064004495739937,-0.0013624376151710749,0.019493138417601585,-0.0005996869876980782,0.005851576570421457,0.06667011231184006,0.024249207228422165,0.018631085753440857,-0.0004021884233225137,-0.015765996649861336,-0.008256063796579838,0.007429405581206083,0.00623294385150075,-0.05380496010184288,-0.0055111125111579895,0.009010451845824718,-0.01848984695971012,0.015113596804440022,0.011577043682336807,0.015318085439503193,0.010774635709822178,-0.005792916752398014,0.015120836906135082,0.010831193998456001,-0.011243135668337345,0.02882535569369793,0.04049887880682945,0.0016185970744118094,-0.026807289570569992,0.008683676831424236,0.004384446889162064,-0.008261932991445065,0.045246925204992294,-0.01585191860795021,-0.013981582596898079,-0.01422947645187378,-0.012917449697852135,0.028095994144678116,0.020511526614427567,0.015897877514362335,-0.03094380348920822,-0.014575758948922157,-0.0038431233260780573,0.0013928379630669951,0.0003853563393931836,0.05094234645366669,0.024179352447390556,0.030300572514533997,-0.03790303319692612,-0.010501418262720108,-0.06231817975640297,0.03189444541931152,0.027695465832948685,0.01991543173789978,-0.006813314743340015,-0.010139135643839836,-0.011037953197956085,0.0017876806668937206,-0.029458962380886078,0.037131741642951965,-0.006594586651772261,-0.02206691913306713,-0.001329427701421082,0.02039821445941925,0.02612609975039959,0.044052854180336,-0.018105745315551758,0.00585632910951972,0.009980037808418274,0.0047592115588486195,-0.01933296024799347,-0.03875066712498665,-0.02557324431836605,-0.01323022786527872,0.0025887133087962866,0.03297490254044533,0.013526244089007378,0.0036735227331519127,-0.0046475655399262905,-0.00429773423820734,-0.0026248113717883825,0.06578309088945389,-0.030402138829231262,-0.009595314972102642,0.01552477665245533,-0.014038333669304848,0.019171182066202164,-0.005950953345745802,0.007224063854664564,0.022157955914735794,0.01642647013068199,-0.04253237694501877,-0.0049080695025622845,-0.001526356441900134,-0.013200609013438225,0.006827259436249733,0.03310073912143707,0.010269216261804104,0.00964309275150299,-0.009339716285467148,-0.027107179164886475,0.009629500098526478,0.005684472154825926,-0.020310115069150925,0.019540488719940186,0.003580342745408416,0.012663623318076134,0.012274927459657192,-0.007685488555580378,0.03194962814450264,-0.03283587098121643,-0.03651295602321625,-0.012156426906585693,-0.0035459217615425587,-0.0057296836748719215,-0.0019362176535651088,-0.006906731985509396,0.0494462288916111,-0.0101039232686162,-0.023957066237926483,0.0035421354696154594,-0.019615016877651215,-0.0007273667142726481,0.025872793048620224,-0.04000542312860489,0.0012816301314160228,0.02016536146402359,-0.000813472259324044,0.04717326909303665,0.008022790774703026,0.014946108683943748,-0.0044759525917470455,-0.009632980450987816,-0.04308687150478363,0.03030494786798954,0.009648655541241169,-0.01686731167137623,-0.013839202001690865,0.010072406381368637,-0.025078264996409416,0.030029190704226494,0.5637525320053101,0.038725677877664566,-0.01917133294045925,-0.015608268789947033,0.036427997052669525,-0.06609930843114853,0.04602482542395592,0.015785831958055496,-0.003633218351751566,0.026777878403663635,0.011160560883581638,-0.019367733970284462,-0.02154480665922165,-0.007824408821761608,-0.026128968223929405,-0.017295945435762405,-4.734669710160233e-05,-0.11606068909168243,0.06183614209294319,0.01915096305310726,-0.027356838807463646,-0.0371587835252285,0.021562092006206512,-0.011970183812081814,-0.020764222368597984,0.011221490800380707,-0.017557447776198387,-0.03207986801862717,-0.025737091898918152,0.0026550106704235077,0.04975663125514984,0.005737011320888996,-0.03603562340140343,-0.04058587923645973,0.024515334516763687,0.012930060736835003,0.00843885913491249,-0.03723868355154991,-0.019014261662960052,-0.012252080254256725,0.006112295668572187,0.005173344165086746,-0.008223134092986584,-0.06431469321250916,-0.022727834060788155,0.10428223013877869,-0.002775779692456126,0.03607230633497238,0.029270190745592117,-0.014694261364638805,-0.017024125903844833,-0.049365460872650146,0.015790387988090515,-0.03383425623178482,0.014409434050321579,0.10736054927110672,0.0024493136443197727,0.032632727175951004,-0.026571528986096382,-0.006214139051735401,0.05779549479484558,-0.008915327489376068,0.02278738282620907,-0.0032658358104526997,0.036695726215839386,0.0025152764283120632,0.030775269493460655,-0.0006897964631207287,0.032478272914886475,-0.0497257374227047,-0.023150449618697166,-0.03317464515566826,0.005812956020236015,0.010916497558355331,0.01482409704476595,-0.008754290640354156,-0.017397858202457428,0.013932013884186745,-0.022466665133833885,0.013265407644212246,-0.05226559937000275,0.03114936128258705,0.0214055385440588,0.003476028796285391,0.014458372257649899,-0.03231772780418396,-0.030228354036808014,-0.012873107567429543,-0.006023722235113382,-0.0028465145733207464,0.051116377115249634,-0.01557682454586029,-0.03176397085189819,-0.012595676816999912,-0.033342231065034866,-0.0027049907948821783,0.002574637997895479,-0.006932894233614206,-0.020099196583032608,0.008260075934231281,0.01866508461534977,0.009590424597263336,0.00442115543410182,0.03891286253929138,-0.013156072236597538,-0.008180965669453144,0.02933947928249836,0.022961607202887535,-0.028380852192640305,-0.030574627220630646,0.012679735198616982,0.00856965035200119,0.012966682203114033,-0.008915040642023087,0.03869258984923363,-0.02517552301287651,-0.04877161979675293,0.005402113776654005,0.01570271886885166,0.003348885802552104,0.04539347067475319,-0.019050903618335724,-0.04455815255641937,0.024724725633859634,0.006704455707222223,0.03286387026309967,0.02998277172446251,0.011969396844506264,0.013183060102164745,-0.05799556151032448,-0.004740160424262285,0.009229001589119434,-0.005544296000152826,-0.0012125166831538081,0.01235019788146019,-0.01141259353607893,-0.04234746843576431,0.016200808808207512,-0.0537109375,0.023377088829874992,0.048239368945360184,0.015072436071932316,0.007884388789534569,-0.005056132562458515,-0.014263011515140533,0.03713596239686012,-0.0032945331186056137,-0.016442401334643364,0.003605620004236698,-0.013164215721189976,0.02396337501704693,0.017910677939653397,0.013563474640250206,0.0055849589407444,-0.06159262731671333,-0.025777190923690796,-0.020260360091924667,-0.0028930052649229765,-0.020557202398777008,-0.02304069697856903,0.02150723896920681,-0.020250994712114334,0.005871627479791641,0.01906970888376236,0.031131576746702194,-0.022258777171373367,-0.01663426123559475,0.04325943440198898,0.05694906786084175,-0.05871081352233887,-0.0018291493179276586,-0.01251991931349039,0.0018230244750156999,0.007170217577368021,0.010286854580044746,-0.019714687019586563,0.04062298312783241,0.013173525221645832,-0.01158109400421381,-0.02466791309416294,-0.0051265256479382515,0.06990282237529755,0.0019190931925550103,-0.013426020741462708,0.008385704830288887,0.010456372052431107,0.0021613005083054304,0.003550235414877534,-0.003315540961921215,-0.0389106348156929,0.010105900466442108,0.030368899926543236,0.06440869718790054,0.009264413267374039,0.005424720235168934,0.022043501958251,0.005971461068838835,0.0262176264077425,-0.02304735593497753,0.01472142431885004
Smoking,0.007510057650506496,-0.0444519929587841,-0.033923886716365814,0.03844040259718895,-0.03396114334464073,0.033709898591041565,0.031637247651815414,0.031421270221471786,-0.0777961015701294,0.010344423353672028,0.022691532969474792,0.04261372238397598,0.06569991260766983,0.051434870809316635,-0.012484535574913025,0.0219368115067482,0.05170602723956108,-0.035259027034044266,0.07698412984609604,-0.016284609213471413,0.04922209680080414,-0.012991776689887047,0.03213665261864662,-0.02019232138991356,-0.0406542532145977,-0.03531935438513756,0.03313039243221283,0.029233504086732864,-0.0038102474063634872,-0.01913429982960224,0.051327258348464966,0.07716094702482224,-0.005363079719245434,0.04286200925707817,-0.08667749911546707,-0.030814278870821,-0.05096825584769249,0.017955388873815536,0.007143361959606409,-0.0067252651788294315,0.0044213952496647835,0.07603868097066879,0.029872728511691093,0.009172984398901463,0.05865952745079994,0.04505864530801773,-0.034840069711208344,0.006868227384984493,0.0022722738794982433,-0.02143298089504242,0.0018436142709106207,0.017742371186614037,-0.04178396612405777,-0.03077678009867668,-0.0700714960694313,0.017415927723050117,-0.026777345687150955,-0.01408388838171959,-0.04225391149520874,0.004923376254737377,-0.02035634033381939,0.054346755146980286,-0.005838154349476099,-0.03414928540587425,-0.025952931493520737,-0.048310816287994385,-0.024156618863344193,0.08067651838064194,0.051622629165649414,-0.013354158960282803,0.04538189619779587,-0.00897709559649229,0.01169624738395214,-0.033893734216690063,0.028873693197965622,-0.0026261804159730673,0.04548025503754616,0.033112939447164536,0.006806603632867336,-0.022128887474536896,-0.044856250286102295,0.04170937463641167,0.0024959086440503597,-0.05130193382501602,0.0019637926016002893,0.00029018099303357303,0.010759257711470127,0.024874094873666763,-0.025764822959899902,-0.008052215911448002,0.008068840019404888,0.008442927151918411,-0.08509567379951477,0.03566579893231392,-0.04646143317222595,-0.031154723837971687,0.04231630265712738,0.010742361657321453,0.10675503313541412,0.05443800985813141,-0.06819958239793777,0.011851202696561813,0.05544809624552727,0.012650649063289165,0.005277101881802082,-0.0011971876956522465,-0.0021534233819693327,-0.0027891024947166443,0.01642448455095291,-0.03299886733293533,-0.03932780772447586,-0.040402062237262726,0.013694999739527702,0.04105936735868454,-0.04186582192778587,0.04546892270445824,-0.0848541185259819,0.012578138150274754,-0.01690833456814289,0.009203338995575905,0.03682488575577736,-0.018042679876089096,-0.0007951827137731016,0.039679814130067825,0.0067519983276724815,-0.022350993007421494,0.03237983211874962,0.04207729175686836,-0.037968143820762634,0.016352467238903046,0.045141734182834625,-0.018823886290192604,-0.0017174427630379796,0.3359421491622925,0.016015982255339622,0.015040247701108456,-0.012484174221754074,0.006353032309561968,0.026691971346735954,0.006673928815871477,-0.042004309594631195,0.0008195794653147459,-0.057078808546066284,0.026780998334288597,0.0961240604519844,-0.022058766335248947,-0.01724650152027607,-0.08601796627044678,-0.02873956970870495,0.022801894694566727,0.04741609841585159,-0.02306940220296383,0.015588589943945408,-0.021626196801662445,0.0025869496166706085,-0.022161541506648064,-0.047833818942308426,-0.01806233823299408,0.015889901667833328,0.06314940005540848,0.07856673747301102,0.030482547357678413,0.00045644110650755465,0.024146853014826775,-0.04310022294521332,-0.011829223483800888,0.026732947677373886,0.03490259125828743,0.03564489632844925,0.010301424190402031,-0.030849063768982887,-0.03299197182059288,-0.02445586957037449,0.01720273122191429,-0.0046072425320744514,0.02305314689874649,0.08444808423519135,0.0014840428484603763,0.09087870270013809,0.012515312992036343,0.02655782550573349,-0.012547551654279232,-0.059782058000564575,-0.015665892511606216,0.005498688202351332,0.0609712079167366,-0.003831445472314954,-0.034847691655159,-0.002264461712911725,0.05162126570940018,0.02570502460002899,-0.0026434562169015408,-0.012505614198744297,-0.04804996773600578,0.010555808432400227,0.03457113727927208,0.003994710277765989,0.04099692776799202,-0.029320333153009415,-0.013795188628137112,0.056423772126436234,-0.020596669986844063,-0.0794667974114418,-0.013771743513643742,-0.051501572132110596,-0.011336509138345718,-0.005515712313354015,-0.016796447336673737,0.06937861442565918,-0.021631671115756035,0.03710075467824936,0.012702609412372112,-0.05186334624886513,0.04082193598151207,0.056290119886398315,-0.04103361442685127,-0.009859228506684303,0.010178023017942905,0.018901163712143898,-0.019833561033010483,0.046813059598207474,-0.03667791187763214,0.025778595358133316,-0.03318829461932182,0.022023186087608337,-0.029433025047183037,-0.005518753081560135,-0.003272261004894972,-0.02571018785238266,0.022389208897948265,0.06937957555055618,-0.05437585338950157,0.010978597216308117,0.04008135199546814,0.0873505249619484,0.07643312960863113,0.004093044437468052,-0.007580872159451246,0.05130739510059357,0.00874654483050108,-0.005974503234028816,-0.047251880168914795,-0.03721477836370468,0.06861478090286255,0.025296274572610855,-0.003770191688090563,-0.010775797069072723,0.02134205400943756,0.025865614414215088,-0.01448108721524477,-0.06841069459915161,-0.0091474037617445,0.02328229323029518,0.0153436828404665,0.004468325525522232,0.0292781013995409,-0.014466542750597,0.008287276141345501,-0.020244646817445755,-0.02456134743988514,0.06121748313307762,-0.005870569031685591,0.005359692499041557,-0.008558220230042934,-0.01745421066880226,-0.031261153519153595,0.02846887893974781,-0.01325257122516632,-0.0032071275636553764,-0.007807406131178141,0.0679052472114563,-0.026419470086693764,0.00244857557117939,-0.0021983652841299772,0.03173601254820824,-0.03572428598999977,0.007719698362052441,0.011604380793869495,-0.007567680906504393,-0.01002208236604929,0.021421141922473907,0.027537129819393158,-0.015194431878626347,-0.023265521973371506,-0.014026276767253876,0.057345200330019,-0.026353804394602776,0.005809691268950701,0.020666716620326042,0.01831301674246788,-0.034419625997543335,-0.016786934807896614,-0.09576825797557831,-0.07394695281982422,0.015791714191436768,0.023247012868523598,-0.011952843517065048,0.08191011101007462,0.030432766303420067,0.002178305760025978,-0.05692563205957413,0.010792020708322525,0.024016940966248512,0.03290820121765137,0.016751397401094437,-0.008551144041121006,0.02978701889514923,-0.024185195565223694,0.10140838474035263,-0.025308310985565186,-0.06211782991886139,0.002347109606489539,0.33721399307250977,0.006855845917016268,0.03386645391583443,0.04691972956061363,0.015293875709176064,-0.11548516899347305,-0.07440578192472458,-0.025500066578388214,-0.06650611013174057,-0.002603827975690365,-0.002544751390814781,0.00899789109826088,-0.10353769361972809,-0.0029942963737994432,-0.0045110671781003475,-0.008178465999662876,0.015986237674951553,0.045177727937698364,-0.01888156868517399,0.0035588769242167473,0.029683563858270645,0.0019313415978103876,0.0487060546875,-0.03796524927020073,-0.06312108039855957,-0.010608736425638199,-0.03742329776287079,0.01818257011473179,-0.0003312955959700048,-0.02507912553846836,0.025690389797091484,-0.0099454615265131,0.05088023841381073,-0.01447628065943718,-0.0013853420969098806,-0.0029375453013926744,-0.03673483058810234,-0.0378807969391346,0.01132181752473116,-0.02478010021150112,-0.023060444742441177,-0.032130252569913864,-0.02368881180882454,-0.10303495079278946,0.020846329629421234,0.0850093886256218,-0.020563654601573944,-0.0025326665490865707,-0.04612451046705246,-0.01309844758361578,0.07851935923099518,-0.027285298332571983,0.16779083013534546,-0.01725134439766407,-0.0005773560842499137,0.029786843806505203,0.018933365121483803,-0.021464992314577103,-0.005523324012756348,0.0052594980224967,-0.04621271789073944,0.010185709223151207,0.0495075061917305,-0.02622470259666443,0.03984672203660011,-0.08264730125665665,0.006960669998079538,0.015188412740826607,-0.025841740891337395,-0.07162556052207947,0.02153264544904232,-0.056799355894327164,0.02571832202374935,0.010601029731333256,-0.025424227118492126,0.005378705449402332,0.037267155945301056,0.03345213085412979,-0.060931939631700516,-0.007168973330408335,-0.01941818930208683,0.004526833537966013,0.06332778930664062,-0.028935512527823448,0.054006095975637436,0.026449615135788918,-0.0626496747136116,-0.008018736727535725,-0.04024161770939827,0.02690507471561432,0.06795930862426758,0.02978517673909664,0.059004079550504684,-0.041260287165641785,-0.0226591806858778,-0.0029334190767258406,0.02257104590535164,-0.0052261133678257465,-0.09030526876449585,-0.018329249694943428,-0.04924719035625458,0.034511443227529526,0.012332070618867874,0.05800094082951546,-0.07807036489248276,0.037637412548065186,0.04892582446336746,0.06477290391921997,0.0020783618092536926,0.05323127657175064,-0.025016216561198235,0.005676116328686476,-0.04997529461979866,0.07348115742206573,-0.02580028399825096,0.028242066502571106,0.020613273605704308,0.011682017706334591,-0.010226015001535416,0.04661763086915016,0.007577975280582905,-0.006060293409973383,0.043735988438129425,-0.01113041676580906,-0.049189869314432144,-0.022909844294190407,-0.0062608360312879086,-0.030110862106084824,0.012654179707169533,-0.025618916377425194,-0.014123499393463135,-0.006280272733420134,0.014448834583163261,-0.046682458370923996,0.015619156882166862,-0.056895073503255844,-0.04949108511209488,0.0045429798774421215,-0.025008710101246834,0.04893999174237251,0.05541980266571045,0.04867172613739967,0.005388522520661354,0.028465094044804573,0.03499317914247513,0.0048108999617397785,-0.026457594707608223,-0.04567395895719528,0.00881001353263855,-0.008488945662975311,0.031730517745018005,0.0207549799233675,0.03682770952582359,-0.0735853984951973,-0.027488449588418007,-0.05691982060670853,0.02404794842004776,0.006090810056775808,0.009476576000452042,-0.009744081646203995,-0.009087995626032352,-0.10096526145935059,0.017274100333452225,-0.0007164381095208228,-0.010327962227165699,0.011165354400873184,-8.871606405591592e-05,-0.019117651507258415,0.008116994984447956,0.019272491335868835,0.03641185536980629,-0.004081418737769127,0.01928527094423771,0.02644447609782219,0.01792110688984394,-0.08767838776111603,-0.024652956053614616,-0.028245016932487488,0.03650467097759247,0.026587117463350296,0.0009859151905402541,0.1032213419675827,-0.010055587626993656,0.03798016905784607,-0.0011051623150706291,0.0003778765385504812,-0.047675639390945435,0.032713793218135834,0.008604015223681927,-0.08219773322343826,0.024610724300146103,0.008509553968906403,0.14244778454303741,-0.02021048590540886,-0.055401235818862915,0.004397632088512182,0.04007162153720856,0.07559799402952194,0.03691734001040459,-0.008367292582988739
